svm_type c_svc
kernel_type rbf
gamma 0.5
nr_class 2
total_sv 14
rho 0.425113
label 1 -1
nr_sv 8 6
SV
0.1611338645964797 1:0.552732 2:0.241379 3:-0.384615 4:0.53316 5:0.705349 6:-1 
2 1:-0.725992 2:0.103448 3:-0.615385 4:-0.867908 5:-0.365173 6:-1 
1.247645702099225 1:0.779678 2:0.965517 3:-0.365385 4:0.885671 5:1 6:-1 
1.321394519260831 1:0.361511 2:0.37931 3:-0.403846 4:0.454906 5:0.337974 6:-1 
0.3392393409358925 1:0.474682 2:0.62069 3:-0.461538 4:0.625515 5:0.637353 6:-0.25 
0.3886772740672212 1:0.0988821 2:-0.137931 3:-0.519231 4:-0.026156 5:0.263373 6:-1 
0.6363523560104798 1:0.0199691 2:-0.0689655 3:-0.730769 4:-0.10203 5:0.340953 6:-0.25 
0.9528441485027657 1:-0.226062 3:-0.576923 4:-0.194934 5:-0.0355524 6:-1 
-1.511451395248622 1:0.0777089 2:0.0344828 3:0.269231 4:0.141279 5:0.0754436 6:-1 
-1.84681430928923 1:-0.981657 2:-0.137931 3:0.0192308 4:-0.98419 5:-0.788823 6:-1 
-1.318414246392704 1:1 2:0.413793 3:0.653846 4:1 5:0.975586 6:-1 
-0.9953028916863567 1:-0.252915 2:-0.0344828 3:-0.461538 4:-0.0315886 5:0.0166429 6:1 
-0.01337657978544003 1:-0.66753 2:-0.551724 3:0.0192308 4:-0.348817 5:-0.666883 6:-1 
-1.36192778307054 1:-0.103538 2:0.137931 3:0.153846 4:0.277339 5:-0.21189 6:-1 
