svm_type c_svc
kernel_type polynomial
degree 3
gamma 0.5
coef0 0
nr_class 2
total_sv 35
rho 0.171023
label 1 -1
nr_sv 18 17
SV
0.125 1:0.236097 2:0.172414 3:-0.846154 4:0.336304 5:0.222121 6:-1 
0.125 1:-0.111727 3:-0.807692 4:-0.152816 5:-0.129646 6:-1 
0.02475372956529722 1:0.607542 2:0.931034 3:-0.480769 4:0.751686 5:0.628481 6:-0.5 
0.125 1:0.552732 2:0.241379 3:-0.384615 4:0.53316 5:0.705349 6:-1 
0.125 1:-0.725992 2:0.103448 3:-0.615385 4:-0.867908 5:-0.365173 6:-1 
0.1044333161462759 1:-0.290204 2:0.62069 3:-0.942308 4:-0.00637876 5:-0.0377542 6:-1 
0.125 1:0.361511 2:0.37931 3:-0.403846 4:0.454906 5:0.337974 6:-1 
0.125 1:0.474682 2:0.62069 3:-0.461538 4:0.625515 5:0.637353 6:-0.25 
0.125 1:0.0988821 2:-0.137931 3:-0.519231 4:-0.026156 5:0.263373 6:-1 
0.125 1:0.0199691 2:-0.0689655 3:-0.730769 4:-0.10203 5:0.340953 6:-0.25 
0.125 1:0.345877 2:0.482759 3:-0.346154 4:0.418526 5:0.496568 6:-1 
0.1121230874447823 1:0.593995 2:0.551724 3:-0.346154 4:0.658843 5:0.736757 6:-1 
0.125 1:0.00295021 2:0.62069 3:-1 4:0.12962 5:0.158011 6:-0.75 
0.125 1:-0.00901118 2:0.482759 3:-0.826923 4:0.27508 5:0.0650822 6:-1 
0.125 1:0.235073 2:0.586207 3:-0.480769 4:0.35779 5:0.28021 6:-1 
0.09102135879893791 1:0.704758 2:0.793103 3:-0.557692 4:0.835251 5:0.751716 6:-0.25 
0.125 1:0.105545 2:0.482759 3:-0.615385 4:0.219838 5:0.315827 6:-1 
0.125 1:-0.226062 3:-0.576923 4:-0.194934 5:-0.0355524 6:-1 
-0.125 1:0.0777089 2:0.0344828 3:0.269231 4:0.141279 5:0.0754436 6:-1 
-0.125 1:0.361471 2:0.310345 3:0.557692 4:0.362307 5:0.503691 6:-1 
-0.125 1:-0.359564 2:-0.586207 3:0.480769 4:-0.225454 5:-0.352092 6:-1 
-0.125 1:-0.278263 2:-0.689655 3:0.557692 4:-0.156478 5:-0.271532 6:-1 
-0.125 1:0.298051 2:-0.103448 3:0.692308 4:0.387029 5:0.205802 6:-1 
-0.125 1:-0.2082 2:0.172414 3:0.423077 4:-0.253838 5:0.0559513 6:-1 
-0.125 1:-0.244566 2:-0.448276 3:0.461538 4:-0.068152 5:-0.275547 6:-1 
-0.08233149195529338 1:1 2:0.413793 3:0.653846 4:1 5:0.975586 6:-1 
-0.125 1:-0.252915 2:-0.0344828 3:-0.461538 4:-0.0315886 5:0.0166429 6:1 
-0.125 1:-0.440885 2:0.0689655 3:0.288462 4:-0.317381 5:-0.445409 6:-1 
-0.125 1:-0.517551 2:-0.517241 3:0.230769 4:-0.276301 5:-0.538337 6:-1 
-0.125 1:-0.66753 2:-0.551724 3:0.0192308 4:-0.348817 5:-0.666883 6:-1 
-0.125 1:0.0985811 2:-0.172414 3:0.634615 4:0.245781 5:0.0471442 6:-1 
-0.125 1:0.0357035 2:-0.103448 3:0.557692 4:0.147871 5:-0.0042093 6:-1 
-0.125 1:0.623618 2:0.448276 3:0.711538 4:0.770304 5:0.518974 6:-1 
-0.125 1:-0.103538 2:0.137931 3:0.153846 4:0.277339 5:-0.21189 6:-1 
-0.125 1:-0.807534 2:-0.206897 3:0.0576923 4:-0.717992 5:-0.687346 6:-1 
